Data,Saida_Estimada,Saida,Erro
2020-03-28,519,519
2020-03-29,569,569
2020-03-30,642,642
2020-03-31,759,759
2020-04-01,762,762
2020-04-02,821,821
2020-04-03,922,922
2020-04-04,1034,1034
2020-04-05,1131,1131
2020-04-06,1218,1218
2020-04-07,1303,1303
2020-04-08,1357,1357
2020-04-09,1430,1430
2020-04-10,519,519
2020-04-11,-922,569
2020-04-12,-922,642
2020-04-13,-922,759
2020-04-14,-922,762
2020-04-15,-922,821
2020-04-16,-922,922
2020-04-17,-922,1034
2020-04-18,-922,1131
2020-04-19,-922,1218
2020-04-20,-922,1303
2020-04-21,-922,1357
2020-04-22,-922,1430
2020-04-23,-922,1578
2020-04-24,-922,1639
2020-04-25,-922,1784
2020-04-26,-922,1995
2020-04-27,-922,2100
2020-04-28,-922,2247
2020-04-29,-922,2370
2020-04-30,-922,2599
2020-05-01,-922,2746
2020-05-02,-922,2877
2020-05-03,-922,3129
2020-05-04,-922,3342
2020-05-05,-922,3670
2020-05-06,-922,3884
2020-05-07,-922,4107
2020-05-08,-922,4349
2020-05-09,-922,4619
2020-05-10,-922,4842
2020-05-11,-922,5267
2020-05-12,-922,5317
2020-05-13,-922,5326
2020-05-14,-922,7106
2020-05-15,-922,7169
2020-05-16,-922,7578
2020-05-17,-922,7860
2020-05-18,-922,8084
2020-05-19,-922,8734
2020-05-20,-922,8941
2020-05-21,-922,9227
2020-05-22,-922,9472
2020-05-23,-922,10006
2020-05-24,-922,10485
2020-05-25,-922,10791
2020-05-26,-922,11218
2020-05-27,-922,11499
2020-05-28,-922,12954
2020-05-29,-922,13367
2020-05-30,-922,13801
2020-05-31,-922,15260
2020-06-01,-922,15724
2020-06-02,-922,16099
2020-06-03,-922,1.023e+200
2020-06-04,11218,+
2020-06-05,11218,+
2020-06-06,11218,+
2020-06-07,11218,+
2020-06-08,11218,+
2020-06-09,11218,+
2020-06-10,11218,+
2020-06-11,11218,+
2020-06-12,11218,+
2020-06-13,11218,+
2020-06-14,11218,+
2020-06-15,11218,+
2020-06-16,11218,+
2020-06-17,11218,+
2020-06-18,11218,+
