Data,Saida_Estimada,Saida,Erro
2020-03-28,82,82,0
2020-03-29,-335,103,438
2020-03-30,-321,117,438
2020-03-31,-304,132,436
2020-04-01,-540,153,693
2020-04-02,-544,167,711
2020-04-03,-611,183,794
2020-04-04,-744,215,959
2020-04-05,-741,243,984
2020-04-06,-806,257,1063
2020-04-07,-1060,268,1328
2020-04-08,-1164,290,1454
2020-04-09,-1122,312,1434
2020-04-10,-1134,341,1475
2020-04-11,-1295,353,1648
2020-04-12,-1389,362,1751
2020-04-13,-1576,388,1964
2020-04-14,-1501,425,1926
2020-04-15,-1492,519,2011
2020-04-16,-1664,569,2233
2020-04-17,-1860,642,2502
2020-04-18,-2666,759,3425
2020-04-19,-2516,762,3278
2020-04-20,-3002,821,3823
2020-04-21,-3866,922,4788
2020-04-22,-3011,1034,4045
2020-04-23,-3583,1131,4714
2020-04-24,-4283,1218,5501
2020-04-25,-4839,1303,6142
2020-04-26,-5146,1357,6503
2020-04-27,-5457,1430,6887
2020-04-28,-5812,1578,7390
2020-04-29,-5751,1639,7390
2020-04-30,-6159,1784,7943
2020-05-01,-7313,1995,9308
2020-05-02,-6835,2100,8935
2020-05-03,-8004,2247,10251
2020-05-04,-9404,2370,11774
2020-05-05,-9082,2599,11681
2020-05-06,-9925,2746,12671
2020-05-07,-10208,2877,13085
2020-05-08,-11968,3129,15097
2020-05-09,-11945,3342,15287
2020-05-10,-12270,3670,15940
2020-05-11,-14093,3884,17977
2020-05-12,-14654,4107,18761
2020-05-13,-16899,4349,21248
2020-05-14,-16975,4619,21594
2020-05-15,-17911,4842,22753
2020-05-16,-19034,5267,24301
2020-05-17,-20245,5317,25562
2020-05-18,-20876,5326,26202
2020-05-19,-24424,7106,31530
2020-05-20,-20913,7169,28082
2020-05-21,-19948,7578,27526
2020-05-22,-40932,7860,48792
2020-05-23,-62167,8084,70251
2020-05-24,-99786.5,8734,108521
2020-05-25,451119,8941,-442178
2020-05-26,732262,9227,-723035
2020-05-27,1.44179e+06,9472,-1.43232e+06
2020-05-28,-4.8335e+06,10006,4.84351e+06
2020-05-29,-8.40934e+06,10485,8.41983e+06
2020-05-30,-1.98459e+07,10791,1.98567e+07
2020-05-31,5.11428e+07,11218,-5.11315e+07
2020-06-01,9.47203e+07,11499,-9.47088e+07
2020-06-02,2.64402e+08,12954,-2.6439e+08
2020-06-03,-5.33483e+08,13367,5.33496e+08
2020-06-04,-1.04484e+09,13801,1.04485e+09
2020-06-05,-3.43682e+09,15260,3.43684e+09
2020-06-06,5.47604e+09,15724,-5.47602e+09
2020-06-07,1.1257e+10,16099,-1.1257e+10
